/*!
 * The following copyright notice may not be removed under any circumstances.
 * 
 * Copyright:
 * Digitized data copyright (C) 1991-1996 The Monotype Corporation. All rights
 * reserved. Impact is a trademark of Stephenson Blake (Holdings) Ltd.
 * 
 * Trademark:
 * Impact is a trademark of Stephenson Blake (Holdings) Ltd.
 * 
 * Description:
 * 1965. Designed for the Stephenson Blake type foundry. A very heavy, narrow,
 * sans serif face intended for use in newspapers, for headlines and in
 * advertisements. Aptly named, this face has a very large "x" height with short
 * ascenders and descenders.
 * 
 * Manufacturer:
 * Monotype Typography, Inc.
 * 
 * Designer:
 * Geoffrey Lee
 * 
 * Vendor URL:
 * http://www.monotype.com/html/mtname/ms_welcome.html
 * 
 * License information:
 * http://www.monotype.com/html/type/license.html
 */
Cufon.registerFont({"w":1092,"face":{"font-family":"Impact","font-weight":400,"font-stretch":"condensed","units-per-em":"2048","panose-1":"2 11 8 6 3 9 2 5 2 4","ascent":"1638","descent":"-410","x-height":"24","bbox":"-12 -1772 2060 303.629","underline-thickness":"102","underline-position":"-154","unicode-range":"U+0020-U+2122"},"glyphs":{" ":{"w":361},"!":{"d":"516,-1619r-66,1219r-312,0r-66,-1219r444,0xm483,-324r0,324r-378,0r0,-324r378,0","w":553},"\"":{"d":"89,-1098r-53,-273r0,-248r306,0r0,248r-46,273r-207,0xm468,-1098r-53,-273r0,-248r306,0r0,248r-47,273r-206,0","w":757},"#":{"d":"36,-1061r308,0r84,-383r189,0r-84,383r355,0r82,-383r189,0r-82,383r170,0r0,190r-206,0r-63,302r269,0r0,189r-305,0r-82,380r-190,0r83,-380r-359,0r-78,380r-191,0r81,-380r-170,0r0,-189r209,0r63,-302r-272,0r0,-190xm497,-871r-63,301r356,0r62,-301r-355,0","w":1283},"$":{"d":"650,-1629v260,29,398,188,369,482r-404,0r0,-67v-6,-112,11,-167,-74,-173v-105,-8,-83,206,-36,247v32,43,377,240,428,290v78,76,134,200,133,366v-2,297,-148,454,-416,491r0,152r-186,0r0,-157v-108,-11,-201,-54,-283,-124v-94,-80,-129,-254,-121,-458r404,0r0,99v0,109,4,177,12,203v8,26,29,39,61,39v60,-1,82,-44,81,-109v-3,-210,-7,-230,-149,-322v-122,-79,-207,-134,-251,-170v-87,-72,-166,-215,-164,-378v4,-262,158,-382,410,-411r0,-129r186,0r0,129","w":1121},"%":{"d":"1103,-1650r-633,1681r-154,0r635,-1681r152,0xm632,-1065v11,218,-88,292,-287,299v-148,5,-246,-43,-285,-131v-45,-101,-24,-302,-24,-446v0,-157,20,-217,119,-271v90,-50,273,-46,358,4v98,58,119,111,119,267r0,278xm335,-908v48,0,41,-29,41,-91r0,-415v-5,-68,11,-94,-42,-94v-50,0,-43,28,-43,94r0,408v5,74,-12,98,44,98xm1383,-282v11,217,-88,292,-287,299v-147,5,-247,-45,-286,-132v-45,-102,-23,-302,-23,-446v0,-156,20,-216,119,-271v90,-50,274,-47,359,4v98,58,118,112,118,267r0,279xm1086,-126v50,0,41,-27,41,-91r0,-414v-5,-68,11,-95,-42,-95v-50,0,-42,29,-42,95r0,408v5,73,-12,97,43,97","w":1419},"&":{"d":"528,-1380v227,0,387,143,387,358v0,109,-42,206,-126,291r143,258r220,-142r0,273r-114,72r142,270r-373,0r-49,-90v-125,83,-244,124,-356,124v-229,0,-367,-180,-366,-399v1,-190,85,-268,224,-329v-107,-77,-160,-180,-160,-311v0,-235,179,-375,428,-375xm521,-1162v-49,2,-67,35,-67,89v0,63,25,121,75,174v45,-59,68,-116,68,-170v0,-45,-29,-95,-76,-93xm414,-344v0,71,27,113,93,114v33,0,70,-14,113,-43r-131,-218v-50,45,-75,94,-75,147","w":1180},"'":{"d":"89,-1098r-53,-273r0,-248r306,0r0,248r-46,273r-207,0","w":379},"(":{"d":"450,-395v2,167,-6,186,155,184r0,211v-217,1,-438,9,-495,-128v-18,-42,-26,-131,-26,-268r0,-827v7,-236,-6,-300,137,-364v73,-33,251,-34,384,-32r0,211v-160,-1,-155,14,-155,184r0,829","w":642,"k":{"A":-51}},")":{"d":"192,-1224v-2,-170,4,-185,-156,-184r0,-211v216,-1,438,-9,495,128v17,43,26,132,26,268r0,827v-7,236,5,299,-135,364v-71,33,-253,34,-386,32r0,-211v162,2,156,-17,156,-184r0,-829","w":642},"*":{"d":"352,-1619r0,161r148,-51r45,118r-148,62r93,132r-100,74r-101,-133r-99,133r-105,-74r94,-137r-149,-57r43,-118r153,51r0,-161r126,0","w":575},"+":{"d":"64,-930r359,0r0,-360r244,0r0,360r361,0r0,244r-361,0r0,358r-244,0r0,-358r-359,0r0,-244"},",":{"d":"307,-317v0,117,3,253,-27,332v-37,96,-134,171,-244,192r0,-116v40,-23,63,-53,68,-91r-68,0r0,-317r271,0","w":344},"-":{"d":"567,-803r0,279r-531,0r0,-279r531,0","w":603},"\u00ad":{"d":"567,-803r0,279r-531,0r0,-279r531,0","w":603},".":{"d":"341,-330r0,330r-305,0r0,-330r305,0","w":378},"\/":{"d":"798,-1650r-480,1681r-306,0r483,-1681r303,0","w":810},"0":{"d":"1006,-1339v38,200,19,561,19,808v0,230,-6,308,-103,425v-76,92,-192,137,-351,137v-186,0,-315,-37,-394,-138v-88,-111,-105,-184,-105,-399v0,-286,-29,-689,38,-899v48,-151,223,-248,431,-245v243,4,426,110,465,311xm621,-1207v0,-86,-6,-139,-13,-161v-14,-44,-104,-43,-118,2v-8,24,-14,76,-14,159r0,790v0,94,6,150,14,170v16,39,104,38,117,-5v7,-23,14,-74,14,-153r0,-802","w":1098},"1":{"d":"695,-1619r0,1619r-404,0r0,-868v0,-125,-2,-201,-9,-226v-24,-87,-126,-73,-270,-77r0,-189v195,-42,344,-128,445,-259r238,0","w":780},"2":{"d":"491,-1650v294,-5,488,157,488,422v0,93,-23,191,-69,294v-46,103,-183,323,-410,658r443,0r0,276r-889,0r0,-231v263,-431,420,-697,470,-799v50,-102,74,-183,74,-240v0,-78,-21,-130,-91,-131v-127,-2,-81,201,-91,333r-362,0v1,-196,-1,-317,83,-428v74,-97,186,-151,354,-154","w":1028,"k":{"4":41}},"3":{"d":"998,-1224v0,190,-44,236,-167,307v168,69,182,143,182,432v0,246,-42,377,-196,461v-140,77,-453,73,-579,-8v-165,-106,-173,-194,-178,-483r0,-128r404,0r0,263v6,110,-13,162,68,162v31,0,50,-13,62,-36v15,-28,15,-213,15,-300v-3,-180,-49,-211,-242,-208r0,-235v205,3,237,-1,242,-175r0,-90v-2,-91,-4,-139,-72,-139v-76,0,-73,51,-73,150r0,133r-404,0r0,-138v2,-315,133,-391,443,-395v351,-5,495,120,495,427","w":1086,"k":{"7":20}},"4":{"d":"896,-1619r0,1058r115,0r0,276r-115,0r0,285r-404,0r0,-285r-480,0r0,-276r349,-1058r535,0xm492,-561r0,-689r-178,689r178,0","w":1023,"k":{"7":37,"1":45}},"5":{"d":"629,-790v-3,-99,-5,-151,-82,-157v-36,-3,-64,27,-71,53v-4,13,-6,44,-6,91r-400,0r17,-816r867,0r0,259r-501,0r0,275v63,-74,143,-111,242,-111v266,0,338,141,338,453r0,231v-3,212,-2,291,-87,402v-74,96,-209,142,-386,141v-206,0,-377,-76,-444,-217v-39,-81,-53,-260,-50,-422r404,0r0,101v0,105,8,179,11,223v6,87,140,84,145,6v1,-15,3,-78,3,-191r0,-321","w":1099,"k":{"7":61,"2":41,"1":61}},"6":{"d":"476,-954v40,-84,118,-128,239,-130v143,-2,275,94,304,204v36,135,32,469,10,609v-31,198,-211,302,-454,302v-287,0,-464,-117,-493,-352v-22,-178,-19,-797,-2,-971v23,-230,213,-361,480,-359v319,3,486,142,482,462r-404,0v-5,-118,18,-145,-26,-192v-42,-45,-133,-11,-133,48v0,95,-2,268,-3,379xm556,-218v66,-11,83,-53,82,-163r0,-303v-2,-94,-6,-150,-81,-150v-75,0,-81,54,-81,150r0,293v4,112,-1,163,80,173","w":1109,"k":{"7":27,"2":20}},"7":{"d":"784,-1619r0,353r-258,1266r-402,0r287,-1328r-399,0r0,-291r772,0","w":802,"k":{"7":-37,"4":41,"3":-25,"1":-45}},"8":{"d":"1014,-1222v0,195,-39,226,-171,304v165,78,185,149,185,448v0,254,-29,350,-186,442v-130,76,-449,80,-580,2v-158,-93,-196,-192,-196,-464v0,-215,9,-350,164,-428v-103,-50,-150,-158,-150,-314v1,-288,166,-418,463,-418v333,0,471,126,471,428xm548,-1014v100,5,68,-148,68,-252v0,-90,2,-132,-70,-135v-102,-4,-68,156,-68,258v0,81,5,126,70,129xm551,-218v81,-9,73,-57,73,-168r0,-207v-3,-99,-4,-146,-79,-154v-74,7,-75,54,-75,154r0,210v4,111,1,156,81,165","w":1095},"9":{"d":"638,-665v-39,85,-118,128,-239,130v-143,2,-275,-94,-304,-204v-36,-135,-31,-469,-9,-609v32,-199,211,-302,454,-302v285,0,465,117,493,352v21,178,18,798,1,972v-22,229,-212,360,-479,358v-320,-3,-486,-142,-483,-462r404,0v5,118,-16,145,28,192v42,45,132,12,132,-48xm558,-1401v-66,11,-83,53,-82,163r0,303v0,103,15,140,81,150v74,-6,81,-54,81,-150r0,-293v-4,-112,1,-163,-80,-173","w":1109},":":{"d":"377,-1054r0,329r-305,0r0,-329r305,0xm377,-330r0,330r-305,0r0,-330r305,0","w":414},";":{"d":"377,-1054r0,329r-305,0r0,-329r305,0xm360,-317v0,117,3,253,-27,332v-37,96,-134,171,-244,192r0,-116v40,-23,63,-53,68,-91r-68,0r0,-317r271,0","w":414},"\u037e":{"d":"377,-1054r0,329r-305,0r0,-329r305,0xm360,-317v0,117,3,253,-27,332v-37,96,-134,171,-244,192r0,-116v40,-23,63,-53,68,-91r-68,0r0,-317r271,0","w":414},"<":{"d":"1027,-324r-962,-401r0,-203r962,-402r0,264r-594,239r594,238r0,265"},"=":{"d":"65,-1122r962,0r0,244r-962,0r0,-244xm65,-740r962,0r0,244r-962,0r0,-244"},">":{"d":"65,-1330r962,400r0,204r-962,402r0,-264r594,-239r-594,-238r0,-265"},"?":{"d":"622,-1268v0,-93,7,-150,-62,-150v-31,0,-49,14,-59,40v-12,31,-13,197,-13,281r-404,0v7,-278,21,-370,184,-483v120,-83,361,-95,511,-33v118,49,192,148,233,266v30,89,26,312,26,458v0,188,-22,278,-134,361v-56,41,-122,62,-197,62v-98,0,-171,-38,-219,-115r0,174r-377,0r0,-445r368,0v1,61,23,92,66,92v33,0,55,-13,63,-40v22,-79,14,-340,14,-468xm488,-324r0,324r-377,0r0,-324r377,0","w":1075},"@":{"d":"748,-1338v114,0,182,62,231,144r16,-114r198,0r-131,827v0,26,12,39,37,39v119,0,202,-115,253,-228v34,-76,53,-163,53,-264v0,-332,-226,-570,-556,-570v-397,0,-665,314,-665,732v0,407,263,701,651,698v217,-2,373,-78,505,-187r210,0v-146,195,-408,332,-714,336v-460,6,-800,-359,-800,-838v0,-489,308,-890,809,-890v317,0,485,132,611,331v65,104,97,234,97,388v0,205,-57,366,-171,484v-114,118,-228,176,-343,176v-86,0,-138,-39,-157,-116v-80,72,-113,117,-236,117v-215,0,-329,-192,-329,-426v0,-167,41,-315,125,-445v84,-130,186,-194,306,-194xm920,-981v0,-106,-45,-201,-141,-201v-81,0,-144,58,-188,172v-44,114,-66,237,-66,368v0,109,48,223,147,224v43,0,81,-17,114,-51v71,-73,134,-353,134,-512","w":1587},"A":{"d":"811,-1619r241,1619r-431,0r-21,-291r-151,0r-25,291r-436,0r214,-1619r609,0xm588,-578v-21,-183,-43,-410,-64,-679v-43,309,-69,536,-80,679r144,0","w":1040,"k":{"\u2026":-51,"}":-51,"z":-51,"x":-51,"]":-51,"Z":-51,"Y":123,"X":-51,"W":37,"V":45,"T":113,"J":-51,"A":-51,"\/":-51,".":-51,",":-51,")":-51}},"B":{"d":"814,-874v190,46,247,120,250,344v2,137,1,319,-38,393v-27,52,-64,91,-119,108v-155,49,-586,24,-823,29r0,-1619r420,0v379,-6,530,86,530,461v0,203,-49,240,-220,284xm505,-1342r0,360v55,0,106,-1,121,-32v17,-14,27,-235,3,-280v-25,-48,-45,-44,-124,-48xm505,-277v125,-8,138,-19,138,-151v0,-83,10,-243,-22,-277v-15,-15,-53,-23,-116,-25r0,453","w":1131},"C":{"d":"1067,-913r-421,0v-3,-128,12,-346,-14,-435v-13,-44,-113,-39,-125,6v-7,25,-14,78,-14,160r0,752v0,79,6,129,14,154v15,47,110,48,125,0v19,-60,12,-267,14,-372r421,0v2,162,-9,350,-35,419v-54,147,-240,263,-457,263v-232,0,-409,-86,-464,-252v-60,-183,-39,-569,-39,-830v0,-223,-5,-306,84,-431v76,-107,224,-174,407,-174v228,0,406,98,466,251v36,91,40,321,38,489","w":1134},"D":{"d":"84,-1619r315,0v203,0,341,10,413,28v128,31,214,114,233,235v31,201,14,620,14,875v0,145,-7,242,-21,291v-26,98,-96,156,-197,174v-198,36,-521,10,-757,16r0,-1619xm505,-1342r0,1065v61,0,98,-13,112,-37v14,-24,21,-90,21,-198r0,-629v-3,-154,15,-197,-133,-201","w":1132},"E":{"d":"84,-1619r702,0r0,324r-281,0r0,307r263,0r0,308r-263,0r0,356r309,0r0,324r-730,0r0,-1619","w":851,"k":{"T":27}},"F":{"d":"84,-1619r713,0r0,324r-292,0r0,307r260,0r0,308r-260,0r0,680r-421,0r0,-1619","w":815,"k":{"\u2026":109,"Y":-45,"W":-41,"V":-45,"A":41,".":109,",":109}},"G":{"d":"746,-116v-52,91,-131,150,-263,150v-216,0,-374,-145,-399,-338v-25,-190,-12,-508,-12,-732v0,-306,-1,-396,168,-530v144,-114,459,-112,614,-11v166,108,192,213,196,484r0,70r-421,0r0,-147v0,-93,-6,-150,-12,-174v-11,-44,-94,-47,-110,-5v-8,21,-14,71,-14,154r0,777v0,73,6,121,14,144v17,49,102,43,119,-5v22,-63,14,-242,16,-344r-85,0r0,-246r493,0r0,869r-265,0","w":1129},"H":{"d":"1052,-1619r0,1619r-421,0r0,-680r-126,0r0,680r-421,0r0,-1619r421,0r0,579r126,0r0,-579r421,0","w":1137},"I":{"d":"505,-1619r0,1619r-421,0r0,-1619r421,0","w":590},"J":{"d":"18,-283v143,16,160,-39,160,-197r0,-1139r421,0r0,1082v0,162,-2,267,-5,313v-7,98,-71,176,-156,202v-89,27,-287,21,-420,22r0,-283","w":678},"K":{"d":"1087,-1619r-241,731r264,888r-435,0r-170,-694r0,694r-421,0r0,-1619r421,0r0,629r187,-629r395,0","w":1099,"k":{"\u2026":-45,"}":-31,"]":-31,"Z":-37,"S":31,"Q":37,"O":37,"J":-27,"C":37,"A":-41,".":-45,",":-45,")":-31}},"L":{"d":"505,-1619r0,1295r256,0r0,324r-677,0r0,-1619r421,0","w":779,"k":{"\u2026":-55,"y":51,"Z":-27,"Y":133,"X":-31,"W":72,"V":86,"T":147,"S":14,"Q":31,"O":31,"G":27,"C":31,"A":-51,".":-55,",":-55}},"M":{"d":"1383,-1619r0,1619r-368,0r0,-1093r-147,1093r-261,0r-155,-1068r0,1068r-368,0r0,-1619r545,0r109,756r96,-756r549,0","w":1468},"N":{"d":"1024,-1619r0,1619r-369,0r-219,-736r0,736r-352,0r0,-1619r352,0r236,729r0,-729r352,0","w":1109},"O":{"d":"1046,-671v0,286,18,381,-84,531v-75,111,-217,174,-403,174v-262,0,-448,-130,-475,-355v-25,-204,-24,-764,0,-973v26,-229,209,-359,475,-359v262,0,442,131,475,355v17,114,12,447,12,627xm561,-1379v-77,0,-68,54,-68,176r0,756v0,94,5,152,11,174v13,45,98,43,109,-5v6,-26,12,-86,12,-181r0,-744v0,-75,-5,-124,-13,-145v-8,-21,-25,-31,-51,-31","w":1119},"P":{"d":"84,-1619v351,20,817,-88,890,229v16,71,18,250,17,365v-2,196,-23,274,-149,335v-78,38,-212,40,-337,38r0,652r-421,0r0,-1619xm505,-930v109,7,137,-27,134,-146v-2,-79,11,-207,-26,-241v-17,-17,-53,-25,-108,-25r0,412","w":1028,"k":{"\u2026":260,"J":78,"A":51,"\/":154,".":260,",":260}},"Q":{"d":"786,-82v7,81,23,82,115,82r146,0r0,196r-318,0v-181,-3,-247,-15,-242,-196v-186,-3,-341,-111,-382,-256v-54,-192,-33,-568,-33,-828v0,-213,11,-298,100,-414v75,-97,205,-155,370,-155v255,0,450,117,488,323v37,200,16,525,16,763v0,144,-7,242,-21,293v-32,112,-117,162,-239,192xm561,-1379v-77,0,-68,54,-68,176r0,756v0,94,5,152,11,174v13,45,98,43,109,-5v6,-26,12,-86,12,-181r0,-744v0,-75,-5,-124,-13,-145v-8,-21,-25,-31,-51,-31","w":1119},"R":{"d":"1024,-1177v-5,239,-28,307,-232,332v132,29,201,82,222,179v29,133,7,482,10,666r-391,0r0,-538v-8,-156,11,-187,-128,-192r0,730r-421,0r0,-1619r298,0v199,0,334,5,404,23v167,42,243,178,238,419xm505,-982v114,-4,128,-16,128,-146v0,-67,6,-165,-27,-190v-19,-15,-52,-24,-101,-24r0,360","w":1103},"S":{"d":"528,-240v127,9,81,-275,44,-318v-42,-49,-360,-251,-405,-298v-72,-74,-119,-184,-118,-342v2,-239,48,-331,201,-406v141,-69,398,-63,536,4v165,82,186,154,190,407r0,64r-391,0r0,-120v-3,-89,1,-125,-65,-130v-101,-7,-85,185,-55,247v14,27,54,60,119,99v187,111,305,203,354,274v49,71,73,186,73,345v0,236,-39,312,-197,392v-154,77,-412,73,-558,-8v-162,-90,-190,-196,-194,-444r0,-106r391,0r0,197v4,98,-1,138,75,143","w":1059},"T":{"d":"932,-1619r0,324r-250,0r0,1295r-421,0r0,-1295r-249,0r0,-324r920,0","w":944,"k":{"\u2026":170,"y":-41,"w":-41,"v":-41,"e":86,"c":86,"a":86,"Z":14,"Y":-51,"W":-45,"V":-51,"J":92,"A":82,"\/":154,".":170,"-":137,",":170}},"U":{"d":"1041,-1619r0,1082v-5,232,9,285,-83,411v-76,104,-205,161,-383,160v-259,-1,-466,-114,-487,-336v-32,-341,-6,-927,-10,-1317r421,0r0,1214v0,71,5,115,11,135v13,41,87,38,98,-2v6,-22,12,-73,12,-154r0,-1193r421,0","w":1120},"V":{"d":"1084,-1619r-214,1619r-639,0r-243,-1619r444,0v51,446,88,823,110,1131v22,-311,46,-588,69,-830r29,-301r444,0","w":1072,"k":{"\u2026":78,"y":-41,"Y":-51,"J":55,"A":27,"\/":72,".":78,",":78}},"W":{"d":"1668,-1619r-187,1619r-526,0v-48,-249,-90,-531,-127,-848v-17,135,-56,418,-117,848r-523,0r-188,-1619r409,0r87,1110v15,-282,54,-652,116,-1110r438,0v6,47,23,225,46,534r46,615v23,-391,62,-774,117,-1149r409,0","w":1668,"k":{"\u2026":68,"y":-31,"Y":-37,"J":55,"A":20,"\/":86,".":68,",":68}},"X":{"d":"937,-1619r-147,716r222,903r-390,0v-47,-161,-89,-358,-128,-589v-11,102,-27,210,-44,325r-40,264r-410,0r152,-903r-152,-716r407,0r87,441r90,-441r353,0","w":988,"k":{"\u2026":-72,"J":-41,"A":-51,".":-72,",":-72}},"Y":{"d":"981,-1619r-307,1033r0,586r-390,0r0,-586r-296,-1033r387,0v61,315,95,528,102,637v23,-173,62,-385,117,-637r387,0","w":969,"k":{"\u2026":174,"s":68,"q":61,"o":92,"g":68,"e":92,"d":61,"c":92,"a":92,"J":92,"A":102,"\/":170,".":174,",":174}},"Z":{"d":"788,-1619r0,324r-314,971r314,0r0,324r-776,0r0,-235r324,-1060r-286,0r0,-324r738,0","w":813,"k":{"\u2026":-45,"y":-51,"A":-41,".":-45,",":-45}},"[":{"d":"541,-1619r0,249r-91,0r0,1121r91,0r0,249r-457,0r0,-1619r457,0","w":578,"k":{"A":-51}},"\\":{"d":"12,-1650r303,0r483,1681r-305,0","w":810},"]":{"d":"36,0r0,-249r91,0r0,-1121r-91,0r0,-249r457,0r0,1619r-457,0","w":578},"^":{"d":"12,-820r376,-799r223,0r366,799r-284,0r-198,-489r-197,489r-286,0","w":990},"_":{"d":"-12,154r1155,0r0,102r-1155,0r0,-102","w":1131},"`":{"d":"0,-1772r356,0r176,271r-203,0","w":683},"a":{"d":"572,-118v-45,86,-115,140,-235,142v-71,0,-136,-20,-195,-60v-59,-40,-88,-126,-88,-260v0,-116,1,-267,47,-312v34,-34,109,-78,233,-126v133,-52,203,-88,213,-105v20,-33,17,-221,-1,-245v-13,-41,-90,-43,-103,-6v-14,37,-9,202,-10,277r-379,0v-2,-120,4,-259,36,-327v58,-123,217,-211,420,-211v238,0,401,83,434,251v44,227,17,788,21,1100r-393,0r0,-118xm500,-211v74,0,61,-44,61,-147r0,-273v-111,88,-128,96,-128,257v0,69,4,113,13,133v9,20,27,30,54,30","w":1032},"b":{"d":"721,24v-113,0,-187,-53,-245,-124r-26,100r-378,0r0,-1619r404,0r0,383v58,-68,132,-113,245,-115v151,-3,262,69,275,191v23,213,7,550,7,790v0,189,-6,263,-111,342v-47,36,-105,52,-171,52xm599,-950v0,-69,-6,-112,-13,-134v-13,-39,-86,-42,-99,-4v-7,19,-11,64,-11,138r0,572v0,71,5,117,12,137v14,40,88,40,100,-1v6,-21,11,-70,11,-149r0,-559","w":1064},"c":{"d":"514,24v-340,0,-462,-166,-454,-522v4,-204,-22,-491,34,-632v49,-124,224,-221,415,-221v199,0,369,97,419,236v25,68,37,164,37,289r-381,0r0,-153v-3,-84,2,-130,-61,-137v-66,7,-59,47,-59,137r0,626v1,76,11,142,71,142v27,0,45,-12,55,-37v21,-53,14,-209,15,-298r360,0v-5,209,4,278,-79,402v-74,110,-190,168,-372,168","w":1013},"d":{"d":"336,-1351v114,1,190,44,251,108r0,-376r404,0r0,1619r-404,0r0,-96v-66,68,-141,117,-256,120v-119,4,-225,-77,-251,-164v-13,-43,-20,-114,-20,-212r0,-621v4,-193,3,-252,109,-329v46,-33,102,-49,167,-49xm522,-211v78,-10,65,-56,65,-168r0,-614v-3,-80,2,-123,-62,-123v-65,0,-61,39,-61,123r0,650v4,85,-5,125,58,132","w":1064},"e":{"d":"527,-211v82,-8,77,-63,77,-168r0,-175r383,0v1,95,1,227,-15,287v-26,100,-118,212,-218,253v-115,47,-326,50,-445,1v-185,-76,-256,-199,-249,-469v5,-223,-23,-511,47,-662v60,-130,213,-207,400,-207v217,0,370,90,435,235v45,101,47,308,45,476r-523,0r0,287v5,94,-6,134,63,142xm582,-856v0,-67,2,-200,-11,-230v-8,-41,-84,-36,-97,-4v-10,24,-10,169,-10,234r118,0","w":1047},"f":{"d":"587,-1619r0,205v-83,0,-131,6,-147,12v-23,9,-24,66,-23,107r170,0r0,210r-96,0r0,1085r-404,0r0,-1085r-83,0r0,-210r83,0v4,-150,-12,-190,53,-253v65,-63,148,-70,299,-71r148,0","w":592,"k":{"y":-51,"w":-41,"v":-45}},"g":{"d":"335,-1351v117,0,193,51,250,124r29,-100r376,0r0,1022v-8,248,22,276,-77,395v-83,100,-228,142,-422,139v-256,-3,-429,-63,-431,-323r392,0v0,59,21,88,64,88v79,0,76,-44,76,-140r0,-100v-60,54,-129,95,-230,95v-222,0,-302,-120,-302,-363r0,-482v0,-230,67,-355,275,-355xm464,-529v5,92,-10,142,57,142v27,0,44,-11,52,-32v8,-21,12,-70,12,-145r0,-411v-6,-94,11,-132,-57,-141v-65,7,-64,53,-64,141r0,446","w":1062},"h":{"d":"476,-1255v61,-57,135,-93,242,-96v130,-3,249,81,272,179v11,47,16,132,16,257r0,915r-404,0r0,-934v0,-77,-5,-127,-12,-149v-13,-43,-88,-44,-101,1v-7,23,-13,68,-13,135r0,947r-404,0r0,-1619r404,0r0,364","w":1073},"i":{"d":"488,-1619r0,211r-416,0r0,-211r416,0xm488,-1327r0,1327r-416,0r0,-1327r416,0","w":561},"j":{"d":"500,-1619r0,211r-416,0r0,-211r416,0xm500,-1327r0,1050v-6,205,19,267,-54,365v-59,80,-141,98,-296,98r-156,0r0,-212v48,0,75,-5,81,-16v6,-11,9,-77,9,-200r0,-1085r416,0","w":573},"k":{"d":"942,-1327r-164,529r213,798r-389,0r-126,-578r0,578r-404,0r0,-1619r404,0r0,680r126,-388r340,0","w":979},"l":{"d":"488,-1619r0,1619r-416,0r0,-1619r416,0","w":561},"m":{"d":"979,-1201v59,-86,132,-147,257,-150v131,-3,231,75,257,173v13,48,19,126,19,235r0,943r-392,0r0,-865v0,-113,-6,-184,-12,-211v-12,-54,-95,-52,-108,0v-7,27,-13,97,-13,211r0,865r-392,0r0,-843v0,-130,-4,-208,-9,-234v-8,-45,-73,-52,-99,-19v-36,46,-23,73,-23,176r0,920r-392,0r0,-1327r399,0r-7,126v55,-88,132,-150,260,-150v108,0,193,50,255,150","w":1579},"n":{"d":"476,-1205v52,-87,128,-144,254,-146v133,-3,229,72,255,173v13,50,19,132,19,248r0,930r-404,0r0,-919v0,-91,-3,-147,-9,-167v-6,-20,-23,-30,-50,-30v-29,0,-47,11,-54,34v-7,23,-11,85,-11,185r0,897r-404,0r0,-1327r411,0","w":1071},"o":{"d":"966,-1071v35,123,20,369,20,535v0,223,-4,302,-95,418v-74,95,-199,141,-364,142v-243,2,-398,-73,-445,-262v-34,-135,-22,-410,-22,-594v0,-241,39,-363,184,-456v117,-76,361,-79,500,-22v114,46,191,129,222,239xm523,-211v67,0,59,-48,59,-138r0,-612v0,-68,-4,-111,-11,-129v-7,-18,-23,-26,-47,-26v-72,0,-60,52,-60,155r0,599v0,63,4,103,12,122v8,19,24,29,47,29","w":1047},"p":{"d":"732,24v-120,0,-196,-61,-256,-139r0,304r-404,0r0,-1516r411,0r-7,117v62,-81,137,-138,261,-141v118,-4,226,78,248,167v11,44,17,119,17,224r0,559v-4,213,-1,298,-110,379v-43,32,-97,46,-160,46xm540,-211v76,0,58,-54,58,-161r0,-569v0,-82,-4,-131,-9,-149v-10,-36,-91,-34,-101,4v-5,21,-12,68,-12,145r0,550v0,80,4,130,12,150v8,20,25,30,52,30","w":1063},"q":{"d":"327,-1351v121,0,196,58,257,137r7,-113r397,0r0,1516r-404,0r0,-296v-69,96,-99,128,-231,131v-139,3,-237,-75,-269,-180v-16,-53,-24,-134,-24,-243r0,-585v3,-176,5,-244,104,-318v45,-34,100,-49,163,-49xm525,-211v69,0,59,-58,59,-158r0,-597v-4,-91,3,-141,-62,-150v-67,10,-58,53,-58,150r0,591v0,71,4,116,12,135v8,19,24,29,49,29","w":1061},"r":{"d":"476,-1327r-16,174v59,-125,144,-191,255,-198r0,467v-127,0,-211,26,-227,114v-31,173,-8,550,-12,770r-404,0r0,-1327r404,0","w":733,"k":{"\u2026":143,"y":-37,"w":-37,"v":-37,"t":-37,"f":-37,".":143,",":143}},"s":{"d":"478,-211v69,0,77,-31,77,-112v0,-63,-7,-103,-22,-119v-15,-16,-95,-61,-235,-142v-192,-112,-256,-149,-256,-375v0,-208,43,-289,184,-351v121,-53,333,-52,458,-8v99,35,177,105,202,191v12,41,11,152,11,224r-358,0r0,-72v-6,-98,13,-141,-63,-141v-50,0,-68,35,-68,90v2,92,5,106,60,152v28,23,86,56,174,99v117,57,191,114,231,162v73,90,65,366,13,465v-59,113,-201,172,-378,172v-189,0,-352,-62,-414,-178v-33,-62,-44,-191,-41,-312r358,0v0,68,-1,196,13,223v10,21,27,32,54,32","w":964},"t":{"d":"498,-1504r0,209r109,0r0,210r-109,0r0,710v0,87,5,136,14,146v9,10,46,15,112,15r0,214r-163,0v-164,-3,-226,8,-301,-64v-88,-85,-67,-130,-67,-347r0,-674r-87,0r0,-210r87,0r0,-209r405,0","w":624,"k":{"\u2026":-61,"z":-45,"y":-41,"v":-37,".":-61,",":-61}},"u":{"d":"593,-110v-50,81,-125,132,-245,134v-166,2,-256,-87,-275,-228v-5,-38,-7,-114,-7,-228r0,-895r404,0r0,903v0,103,6,164,10,184v9,39,97,38,104,-1v4,-20,9,-84,9,-193r0,-893r404,0r0,1327r-411,0","w":1070},"v":{"d":"462,-359r84,-968r361,0r-189,1327r-527,0r-203,-1327r361,0","w":895,"k":{"\u2026":37,"z":-20,"y":-61,"t":-55,"f":-55,".":37,",":37}},"w":{"d":"1377,-1327r-161,1327r-439,0v-24,-162,-52,-375,-83,-640v-19,214,-59,432,-90,640r-439,0r-171,-1327r348,0v3,35,32,288,88,759v4,-48,34,-301,90,-759r335,0r82,759v13,-221,43,-474,92,-759r348,0","w":1371,"k":{"z":-14,"y":-51,"f":-45}},"x":{"d":"872,-1327r-161,634r195,693r-393,0v-39,-175,-68,-325,-88,-451v-27,157,-56,308,-87,451r-338,0r174,-693r-174,-634r338,0v54,271,83,424,87,461v39,-226,68,-380,88,-461r359,0","w":888,"k":{"\u2026":-45,"y":-31,".":-45,",":-45}},"y":{"d":"918,-1327r-116,960v-18,152,-33,256,-46,311v-47,193,-162,247,-425,242r-245,0r0,-212v63,0,103,-4,121,-10v18,-6,27,-20,27,-42v0,-11,-8,-57,-25,-139r-221,-1110r367,0r132,895r64,-895r367,0","w":918,"k":{"\u2026":37,"z":-10,"x":-41,"v":-41,"t":-41,"f":-41,".":37,",":37}},"z":{"d":"701,-1327r0,294r-298,767r298,0r0,266r-689,0r0,-278r305,-783r-274,0r0,-266r658,0","w":719,"k":{"\u2026":-45,"z":-37,"y":-45,"w":-41,"v":-51,"t":-31,"f":-31,".":-45,",":-45}},"{":{"d":"719,303v-335,9,-464,-76,-464,-424v0,-224,9,-264,-68,-365v-25,-33,-77,-49,-151,-52r0,-240v192,-14,219,-104,219,-350v0,-355,69,-497,412,-491r53,0r0,239v-172,6,-196,3,-204,147v-14,261,7,307,-60,449v-21,45,-65,86,-128,126v121,77,166,155,177,345r15,291v25,80,68,82,199,85r0,240","w":757,"k":{"A":-51}},"|":{"d":"169,-1619r217,0r0,1884r-217,0r0,-1884","w":555},"}":{"d":"36,-1619v336,-9,465,75,465,424v0,230,-8,267,71,367v25,31,75,47,148,50r0,240v-191,14,-219,105,-219,349v0,266,-14,400,-196,467v-57,21,-168,27,-268,25r0,-240v167,-6,197,-4,204,-147v14,-275,-7,-323,69,-464v23,-43,64,-79,118,-110v-161,-109,-176,-189,-184,-464v-4,-115,-7,-181,-14,-197v-28,-60,-70,-59,-194,-61r0,-239","w":757},"~":{"d":"1018,-787v-105,87,-200,131,-284,131v-57,0,-143,-27,-256,-82v-65,-31,-112,-47,-142,-47v-73,0,-166,54,-279,162r0,-277v183,-147,295,-165,521,-58v129,61,159,80,267,30v35,-16,92,-62,173,-134r0,275","w":1075},"\u2122":{"d":"265,-800r0,-677r-253,0r0,-142r665,0r0,142r-246,0r0,677r-166,0xm738,-800r0,-819r259,0r149,564r149,-564r260,0r0,819r-158,0r0,-653r-177,653r-150,0r-176,-653r0,653r-156,0","w":1603},"\u2026":{"d":"341,-330r0,330r-305,0r0,-330r305,0xm1097,-330r0,330r-305,0r0,-330r305,0xm719,-330r0,330r-305,0r0,-330r305,0","w":1133},"\u2013":{"d":"-12,-788r1048,0r0,249r-1048,0r0,-249","w":1024},"\u2014":{"d":"-12,-788r2072,0r0,249r-2072,0r0,-249","w":2048},"\u201c":{"d":"398,-1095v0,-117,-3,-253,28,-332v37,-96,133,-170,243,-192r0,116v-39,23,-62,53,-67,91r67,0r0,317r-271,0xm36,-1095v0,-117,-3,-253,28,-332v37,-95,134,-170,243,-192r0,116v-39,23,-62,53,-67,91r67,0r0,317r-271,0","w":706},"\u201d":{"d":"669,-1619v0,117,3,251,-27,331v-37,97,-135,170,-244,193r0,-117v39,-22,62,-52,67,-90r-67,0r0,-317r271,0xm307,-1619v0,117,3,251,-27,331v-37,97,-135,170,-244,193r0,-117v40,-22,63,-52,68,-90r-68,0r0,-317r271,0","w":706},"\u2018":{"d":"36,-1095v0,-117,-3,-253,28,-332v37,-95,134,-170,243,-192r0,116v-39,23,-62,53,-67,91r67,0r0,317r-271,0","w":344},"\u2019":{"d":"307,-1619v0,117,3,251,-27,331v-37,97,-135,170,-244,193r0,-117v40,-22,63,-52,68,-90r-68,0r0,-317r271,0","w":344},"\u00d7":{"d":"74,-1122r172,-172r300,299r299,-299r173,172r-299,300r297,296r-172,173r-297,-297r-298,296r-172,-172r297,-296"},"\u2032":{"d":"297,-1098r-207,0r-10,-522r305,0","w":379},"\u2033":{"d":"297,-1098r-207,0r-10,-522r305,0xm707,-1098r-207,0r-11,-522r306,0","w":795},"\u00a0":{"w":361}}});
